{
  "input_nodes": 5,
  "hidden_nodes": 6,
  "output_nodes": 2,
  "weights_ih": {
    "rows": 6,
    "cols": 5,
    "data": [
      [
        -0.03164712062810793,
        -0.19209563685757397,
        -0.6872129333047885,
        1.2297321117823414,
        0.1448081277416151
      ],
      [
        1.2120234688518616,
        0.19766880570673556,
        0.47374127173428615,
        -1.3361395876543436,
        1.1083159257401378
      ],
      [
        -2.560018843642887,
        0.9681146011513658,
        -4.532477025907813,
        -2.264689620755352,
        -0.08727535746308718
      ],
      [
        -0.9921012727819413,
        -0.6300014714980997,
        0.00482081739639828,
        1.224773601618981,
        -0.5526495740029768
      ],
      [
        0.6417804721173214,
        1.0974768452063195,
        1.5205862070001643,
        -0.9326866771685838,
        0.042439894004467626
      ],
      [
        -1.5398455240797189,
        0.11166486427367806,
        -0.31205652476503376,
        1.6352801338006122,
        -2.8737576948158363
      ]
    ]
  },
  "weights_ho": {
    "rows": 2,
    "cols": 6,
    "data": [
      [
        0.9009259233933794,
        -1.0173251241830976,
        -3.2934405258195594,
        -0.8088205052191962,
        1.2122379842562765,
        1.5408380583246004
      ],
      [
        -0.24455270748953603,
        -0.7891814977880272,
        -0.6111491483067032,
        1.861376331507151,
        -2.2456187101143223,
        2.5690708109264753
      ]
    ]
  },
  "bias_h": {
    "rows": 6,
    "cols": 1,
    "data": [
      [
        0.21797986195182537
      ],
      [
        -0.21474313535715117
      ],
      [
        1.1549246930571055
      ],
      [
        -1.1993081500530653
      ],
      [
        -1.0189758499599806
      ],
      [
        -0.01721034792638898
      ]
    ]
  },
  "bias_o": {
    "rows": 2,
    "cols": 1,
    "data": [
      [
        -2.124061736999651
      ],
      [
        -0.7277983179912871
      ]
    ]
  },
  "learning_rate": 0.1,
  "activation_function": {}
}
